digraph Tree {
node [shape=box] ;
0 [label="X[3] <= 0.75\nentropy = 1.584\nsamples = 105\nvalue = [36, 33, 36]"] ;
1 [label="entropy = 0.0\nsamples = 36\nvalue = [36, 0, 0]"] ;
0 -> 1 [labeldistance=2.5, labelangle=45, headlabel="True"] ;
2 [label="X[3] <= 1.75\nentropy = 0.999\nsamples = 69\nvalue = [0, 33, 36]"] ;
0 -> 2 [labeldistance=2.5, labelangle=-45, headlabel="False"] ;
3 [label="X[2] <= 4.95\nentropy = 0.503\nsamples = 36\nvalue = [0, 32, 4]"] ;
2 -> 3 ;
4 [label="entropy = 0.206\nsamples = 31\nvalue = [0, 30, 1]"] ;
3 -> 4 ;
5 [label="entropy = 0.971\nsamples = 5\nvalue = [0, 2, 3]"] ;
3 -> 5 ;
6 [label="X[2] <= 4.95\nentropy = 0.196\nsamples = 33\nvalue = [0, 1, 32]"] ;
2 -> 6 ;
7 [label="entropy = 0.722\nsamples = 5\nvalue = [0, 1, 4]"] ;
6 -> 7 ;
8 [label="entropy = 0.0\nsamples = 28\nvalue = [0, 0, 28]"] ;
6 -> 8 ;
}